0.09410552 -0.09110813 -0.28042078 0.011626043 -0.19367042 0.20904377 -0.0701258 0.13085489 -0.19232124 0.031355783 -0.088163555 -0.21985236 -0.25541615 -0.06638454 -0.093918286 -0.008389207 -0.29604906 0.29770643 -0.02632749 -0.12157968 0.065236144 -0.23395756 -0.34661508 0.21402633 0.07752224 -0.14916402 0.1801568 0.25033858 -0.014305742 -0.4259193 0.19005853 -0.104864076 -0.13359602 -0.06809005 -0.24449855 -0.023703732 0.08466461 -0.031356853 0.18125306 -0.19667554 -0.5518932 -0.065853596 -0.14502548 -0.3524181 -0.5099331 0.023269102 0.09216158 0.10354133 -0.30718297 -0.58792734 0.17320366 -0.28201306 -0.12018264 0.018511469 0.05503856 0.124049276 -0.27744874 0.04805114 0.11260107 -0.043641638 -0.0520636 -0.32959908 0.30095854 -0.16388118 -0.2205871 -0.33734545 -0.004988227 0.038563713 -0.058417033 -0.3385071 -0.04969477 0.120393336 0.029953977 -0.022786602 0.18447253 0.105400205 -0.060092177 -0.08946615 0.008314609 -0.49786827 -0.2433541 -0.04198282 0.08706065 0.23707199 -0.21044524 -0.2076966 0.3280212 -0.12036703 -0.045687445 0.10925804 0.04339895 -0.21160063 0.016428558 -0.19073424 0.1061248 -0.17241511 0.09009914 0.021180559 0.053649135 -0.15437892 